/*!
 * The following copyright notice may not be removed under any circumstances.
 * 
 * Copyright:
 * Copyright 1998 Elsner+Flake. All Rights Reserved.
 * 
 * Description:
 * This is a protected webfont and is intended for CSS @font-face use ONLY.
 * Reverse engineering this font is strictly prohibited.
 */
Cufon.registerFont({"w":500,"face":{"font-family":"","font-weight":500,"font-stretch":"normal","units-per-em":"1000","panose-1":"0 0 0 0 0 0 0 0 0 0","ascent":"800","descent":"-200","x-height":"17","bbox":"-23 -918 953.394 250","underline-thickness":"20","underline-position":"-156","unicode-range":"U+0020-U+2122"},"glyphs":{" ":{"w":250},"!":{"d":"190,-170r-120,0r0,-497r120,0r0,497xm190,0r-120,0r0,-115r120,0r0,115","w":260},"\"":{"d":"321,-667r-18,268r-74,0r-18,-268r110,0xm158,-667r-19,268r-74,0r-18,-268r111,0","w":369},"#":{"d":"591,-485r-14,90r-105,0r-16,110r105,0r-14,90r-105,0r-31,195r-103,0r31,-195r-111,0r-30,195r-102,0r31,-195r-107,0r14,-90r107,0r16,-110r-106,0r14,-90r106,0r29,-182r101,0r-28,182r111,0r28,-182r103,0r-29,182r105,0xm370,-395r-111,0r-17,110r111,0","w":600},"$":{"d":"240,-555v-33,-1,-60,29,-59,61v0,33,21,56,64,70r48,15v94,29,141,91,141,184v0,94,-58,164,-137,183r0,119r-113,0r0,-118v-88,-21,-149,-91,-149,-184r119,0v2,45,34,78,80,78v56,0,100,-58,74,-113v-16,-33,-53,-40,-93,-52v-103,-31,-154,-90,-154,-178v0,-86,51,-148,123,-166r0,-116r113,0r0,118v65,19,110,78,117,153r-113,0v-11,-36,-31,-54,-61,-54"},"%":{"d":"613,-313v87,0,163,75,163,163v0,88,-76,163,-163,163v-87,0,-163,-75,-163,-163v0,-88,76,-163,163,-163xm585,-667r-276,667r-87,0r276,-667r87,0xm196,-680v87,0,162,75,162,163v0,87,-74,162,-162,162v-87,0,-162,-75,-162,-162v0,-87,75,-163,162,-163xm613,-83v34,0,63,-33,63,-67v0,-35,-28,-66,-63,-66v-35,0,-63,31,-63,66v0,34,29,67,63,67xm196,-454v35,0,62,-29,62,-64v0,-35,-27,-65,-62,-65v-34,0,-62,31,-62,65v0,34,28,64,62,64","w":810},"&":{"d":"273,-680v92,0,171,73,171,165v0,70,-35,125,-105,164r62,69r65,-111r133,0r-115,201r118,128r-88,77r-91,-100v-49,67,-105,100,-170,100v-116,0,-222,-95,-219,-211v2,-100,55,-145,125,-188v-35,-44,-54,-57,-56,-122v-2,-95,75,-172,170,-172xm264,-434v35,-19,64,-30,67,-76v2,-34,-23,-57,-57,-57v-31,0,-57,25,-56,56v0,21,15,46,46,77xm154,-192v0,72,91,118,144,70v14,-13,28,-32,41,-55r-104,-114v-54,25,-81,58,-81,99","w":615},"'":{"d":"158,-667r-19,268r-73,0r-19,-268r111,0","w":205},"(":{"d":"157,-250v0,119,51,249,125,301r0,129v-36,-13,-65,-29,-88,-50v-91,-80,-160,-222,-160,-379v0,-201,95,-367,248,-431r0,129v-75,65,-125,171,-125,301","w":309},")":{"d":"152,-250v0,-119,-51,-249,-125,-301r0,-129v36,13,65,29,88,50v91,80,160,222,160,379v0,201,-95,367,-248,431r0,-129v75,-65,125,-171,125,-301","w":309},"*":{"d":"422,-513r-110,34r69,92r-65,49r-68,-96r-66,95r-65,-48r71,-92r-110,-34r26,-77r107,39r-2,-116r83,0r-4,116r107,-39"},"+":{"d":"467,-290r-167,0r0,162r-100,0r0,-162r-167,0r0,-93r167,0r0,-162r100,0r0,162r167,0r0,93"},",":{"d":"58,66v37,-6,57,-24,51,-66r-52,0r0,-120r120,0v-3,81,14,172,-32,214v-22,21,-50,33,-87,33r0,-61","w":233},"-":{"d":"250,-207r-250,0r0,-100r250,0r0,100","w":250},".":{"d":"177,0r-120,0r0,-120r120,0r0,120","w":233},"\/":{"d":"373,-667r-311,834r-85,0r311,-834r85,0","w":413},"0":{"d":"250,-680v127,0,222,97,222,224r0,246v2,127,-93,223,-220,223v-133,0,-224,-96,-224,-229r0,-240v-2,-127,95,-224,222,-224xm253,-100v64,0,102,-52,101,-115r0,-242v2,-55,-49,-110,-104,-110v-58,0,-102,56,-102,113r0,235v0,66,38,119,105,119"},"1":{"d":"333,0r-120,0r0,-553r-84,0r0,-114r204,0r0,667"},"2":{"d":"248,-680v120,0,221,99,219,219v-2,111,-65,171,-128,227r-136,121r264,0r0,113r-431,0r0,-113r238,-222v49,-47,74,-91,74,-132v1,-56,-42,-100,-98,-100v-66,0,-100,43,-101,130r-120,0v-14,-138,91,-243,219,-243"},"3":{"d":"238,-680v97,0,181,83,181,180v0,49,-19,89,-57,118v70,30,105,87,105,172v0,125,-104,223,-229,223v-123,0,-220,-97,-225,-214r121,0v5,54,48,101,107,101v57,0,106,-52,106,-109v0,-81,-66,-115,-152,-110r0,-114v59,4,105,-17,105,-71v1,-37,-26,-64,-63,-63v-33,0,-52,21,-55,62r-121,0v7,-67,22,-99,64,-134v33,-27,71,-41,113,-41"},"4":{"d":"480,-100r-71,0r0,100r-120,0r0,-100r-287,0r0,-98r306,-469r101,0r0,454r71,0r0,113xm289,-213r0,-251r-159,251r159,0"},"5":{"d":"172,-430v153,-71,298,63,298,211v0,126,-105,232,-231,232v-116,0,-228,-98,-229,-211r120,0v11,53,46,97,106,98v64,1,114,-54,114,-119v0,-61,-51,-117,-112,-117v-34,0,-64,16,-90,48r-107,-30r63,-349r302,0r0,114r-213,0"},"6":{"d":"284,-443v110,-4,197,107,197,217v0,128,-102,239,-230,239v-128,0,-232,-109,-232,-236v0,-53,14,-101,43,-144r196,-300r141,0r-148,226v15,-1,26,-2,33,-2xm249,-100v63,0,112,-54,112,-116v0,-61,-52,-117,-113,-117v-60,0,-109,55,-109,115v0,62,48,118,110,118"},"7":{"d":"451,-553r-241,553r-133,0r249,-553r-267,0r0,-114r392,0r0,114"},"8":{"d":"250,-680v98,0,185,83,185,182v0,51,-20,93,-60,127v65,37,98,93,98,166v0,119,-105,218,-224,218v-119,0,-224,-101,-222,-220v2,-80,40,-137,100,-164v-40,-39,-60,-80,-60,-125v0,-97,86,-184,183,-184xm252,-424v38,0,70,-33,70,-71v0,-38,-32,-71,-70,-71v-38,0,-71,33,-71,71v0,38,33,71,71,71xm250,-100v56,0,103,-47,103,-103v0,-56,-47,-103,-103,-103v-56,0,-103,47,-103,103v0,56,47,103,103,103"},"9":{"d":"248,-680v127,0,233,103,233,231v0,56,-19,114,-58,173r-182,276r-141,0r147,-224v-137,15,-226,-93,-228,-218v-2,-130,99,-238,229,-238xm250,-332v61,0,113,-53,113,-114v0,-60,-54,-113,-113,-113v-61,0,-114,52,-114,113v0,61,53,114,114,114"},":":{"d":"177,-380r-120,0r0,-120r120,0r0,120xm177,0r-120,0r0,-120r120,0r0,120","w":233},";":{"d":"177,-380r-120,0r0,-120r120,0r0,120xm58,66v37,-6,57,-24,51,-66r-52,0r0,-120r120,0v-3,81,14,172,-32,214v-22,21,-50,33,-87,33r0,-61","w":233},"<":{"d":"467,-78r-434,-212r0,-85r434,-211r0,99r-328,155r327,155"},"=":{"d":"467,-378r-434,0r0,-88r434,0r0,88xm467,-216r-434,0r0,-87r434,0r0,87"},">":{"d":"467,-289r-434,211r0,-99r328,-155r-327,-155r-1,-99r434,212r0,85"},"?":{"d":"221,-680v111,0,204,99,201,209v-3,81,-42,112,-91,160v-38,38,-56,48,-58,112v0,19,0,29,1,31r-120,0v-7,-90,20,-156,80,-206v29,-24,68,-57,68,-100v0,-51,-33,-87,-84,-86v-61,1,-75,33,-85,89r-120,0v6,-69,27,-119,64,-152v43,-38,91,-57,144,-57xm274,0r-120,0r0,-120r120,0r0,120","w":454},"@":{"d":"382,-677v199,0,368,170,302,383v-19,64,-73,145,-150,145v-39,0,-71,-25,-75,-61v-29,45,-71,67,-125,67v-84,0,-140,-76,-140,-159v0,-98,76,-201,175,-201v50,0,85,21,104,63r10,-51r70,0r-39,200v-5,22,-7,37,-7,44v0,27,10,40,30,40v19,0,37,-12,55,-35v29,-36,43,-83,43,-140v0,-139,-111,-231,-250,-231v-156,0,-289,129,-284,285v5,163,109,277,286,277v69,0,135,-13,198,-38r17,63v-61,25,-133,38,-215,38v-199,0,-354,-141,-354,-341v0,-191,158,-348,349,-348xm352,-214v63,0,101,-71,100,-132v0,-46,-27,-84,-74,-84v-61,0,-105,66,-105,126v0,49,30,90,79,90","w":733},"A":{"d":"653,0r-137,0r-71,-172r-236,0r-74,172r-136,0r277,-667r97,0xm396,-287r-71,-205r-72,205r143,0","w":651},"B":{"d":"495,-198v0,84,-52,147,-115,175v-73,32,-212,20,-319,23r0,-667r132,0v94,-3,154,8,205,51v39,33,57,75,57,125v0,56,-25,98,-74,127v76,29,114,85,114,166xm332,-479v0,-70,-73,-75,-147,-72r0,144r40,0v71,0,107,-24,107,-72xm371,-202v0,-88,-93,-94,-186,-90r0,177r62,0v83,0,124,-29,124,-87","w":525},"C":{"d":"31,-336v0,-183,163,-344,345,-344v136,0,268,88,315,204r-140,0v-51,-59,-110,-89,-179,-89v-117,0,-217,114,-217,231v0,119,103,236,222,232v82,-2,121,-35,167,-83r143,0v-43,109,-165,195,-308,198v-185,4,-348,-164,-348,-349","w":707},"D":{"d":"567,-474v47,113,36,235,-25,330v-65,102,-159,144,-327,144r-154,0r0,-667r152,0v189,1,300,61,354,193xm447,-226v38,-71,35,-160,-9,-226v-53,-79,-111,-99,-253,-99r0,436v137,4,218,-28,262,-111","w":627},"E":{"d":"420,0r-359,0r0,-667r359,0r0,116r-235,0r0,162r225,0r0,116r-225,0r0,158r235,0r0,115","w":460},"F":{"d":"401,-551r-216,0r0,162r206,0r0,116r-206,0r0,273r-124,0r0,-667r340,0r0,116","w":425},"G":{"d":"155,-332v0,128,107,232,235,230v94,-2,165,-54,197,-122r-279,0r0,-115r435,0v12,197,-166,352,-353,352v-190,0,-359,-156,-359,-346v0,-187,169,-347,356,-347v142,0,287,97,322,209r-147,0v-34,-53,-98,-92,-178,-94v-126,-3,-229,107,-229,233","w":773},"H":{"d":"547,0r-124,0r0,-280r-238,0r0,280r-124,0r0,-667r124,0r0,272r238,0r0,-272r124,0r0,667","w":608},"I":{"d":"185,0r-124,0r0,-667r124,0r0,667","w":246},"J":{"d":"182,-102v42,1,60,-37,60,-79r0,-486r124,0r0,477v1,116,-66,205,-182,203v-68,-1,-126,-35,-156,-79v-15,-22,-25,-52,-28,-91r123,0v8,37,28,55,59,55","w":420},"K":{"d":"540,0r-145,0r-210,-293r0,293r-124,0r0,-667r124,0r0,289r210,-289r145,0r-252,328","w":534},"L":{"d":"388,0r-327,0r0,-667r124,0r0,552r203,0r0,115","w":405},"M":{"d":"758,0r-123,0r0,-500r-173,500r-105,0r-172,-500r0,500r-124,0r0,-667r171,0r178,505r177,-505r171,0r0,667","w":819},"N":{"d":"603,0r-138,0r-280,-484r0,484r-124,0r0,-667r141,0r277,485r0,-485r124,0r0,667","w":664},"O":{"d":"380,-680v187,0,348,160,348,347v0,187,-161,346,-348,346v-187,0,-349,-159,-349,-346v0,-187,162,-347,349,-347xm380,-102v123,0,225,-108,225,-231v0,-123,-102,-232,-225,-232v-123,0,-225,110,-225,232v0,123,102,231,225,231","w":759},"P":{"d":"425,-613v71,63,80,176,31,265v-40,73,-117,100,-228,94r-43,0r0,254r-124,0r0,-667r168,0v95,-3,145,9,196,54xm185,-370v93,2,179,-3,179,-94v0,-88,-85,-91,-179,-87r0,181","w":505},"Q":{"d":"741,-336v-3,107,-28,152,-80,220v23,11,53,17,92,17r0,112v-69,2,-115,-15,-174,-54v-51,36,-115,54,-191,54v-192,0,-357,-156,-357,-348v0,-191,163,-345,353,-345v186,0,362,157,357,344xm386,-565v-120,0,-235,109,-231,229v0,15,0,27,1,35v66,-19,160,-14,222,9v55,20,141,67,184,108v37,-44,55,-94,55,-149v0,-125,-106,-232,-231,-232xm474,-125v-80,-59,-153,-88,-220,-88v-16,0,-35,3,-58,9v48,68,111,102,190,102v35,0,64,-8,88,-23","w":772},"R":{"d":"506,-460v-3,115,-67,191,-174,214r180,246r-149,0r-178,-255r0,255r-124,0r0,-667v106,4,232,-12,314,15v69,22,134,105,131,192xm264,-348v69,0,119,-34,119,-103v0,-66,-55,-100,-119,-100r-79,0r0,203r79,0","w":539},"S":{"d":"233,-565v-68,0,-93,93,-39,125v24,14,53,26,82,36v54,19,92,40,114,61v40,39,60,86,60,140v0,117,-99,216,-216,216v-118,0,-215,-89,-217,-204r129,0v1,53,37,89,91,89v51,0,92,-34,90,-84v-4,-90,-94,-97,-164,-126v-72,-30,-120,-97,-122,-178v-2,-103,93,-190,195,-190v108,0,194,87,198,190r-128,0v-2,-43,-28,-75,-73,-75","w":482},"T":{"d":"379,-551r-123,0r0,551r-123,0r0,-551r-124,0r0,-116r370,0r0,116","w":389},"U":{"d":"531,-243v5,159,-96,256,-237,256v-96,0,-184,-56,-216,-126v-15,-32,-23,-75,-23,-130r0,-424r123,0r0,424v0,94,38,141,115,141v77,0,115,-47,115,-141r0,-424r123,0r0,424","w":586},"V":{"d":"612,-667r-258,667r-101,0r-260,-667r130,0r180,507r180,-507r129,0","w":606},"W":{"d":"817,-667r-195,667r-98,0r-109,-441r-110,441r-98,0r-195,-667r127,0r116,466r115,-466r90,0r113,466r117,-466r127,0","w":829},"X":{"d":"599,0r-143,0r-161,-230r-155,230r-147,0r230,-332r-230,-335r147,0r155,233r161,-233r143,0r-231,335","w":592},"Y":{"d":"556,-667r-220,421r0,246r-124,0r0,-246r-219,-421r136,0r145,307r146,-307r136,0","w":549},"Z":{"d":"439,0r-417,0r0,-101r256,-450r-242,0r0,-116r385,0r0,107r-253,445r271,0r0,115","w":457},"[":{"d":"177,-102v1,80,15,128,73,154r0,128v-59,-14,-78,-25,-116,-62v-54,-54,-81,-135,-81,-242r0,-281v1,-147,69,-242,197,-275r0,129v-59,26,-73,85,-73,172r0,277","w":309},"\\":{"d":"455,83r-97,0r-332,-833r98,0"},"]":{"d":"132,-398v-1,-80,-15,-128,-73,-154r0,-128v59,14,78,25,116,62v54,54,81,135,81,242r0,281v-1,147,-69,242,-197,275r0,-129v59,-26,73,-85,73,-172r0,-277","w":309},"^":{"d":"485,-350r-106,0r-129,-240r-129,240r-106,0r169,-319r132,0"},"_":{"d":"500,147r-500,0r0,-90r500,0r0,90"},"`":{"d":"331,-613r-52,66r-177,-133r57,-77"},"a":{"d":"280,-517v69,1,137,37,168,80r0,-63r110,0r0,500r-110,0r0,-61v-32,40,-108,77,-175,78v-144,3,-243,-127,-243,-270v0,-142,107,-267,250,-264xm298,-93v87,0,147,-72,147,-159v0,-86,-61,-155,-147,-155v-86,0,-148,75,-148,160v0,82,66,154,148,154","w":613},"b":{"d":"331,-517v140,0,251,129,251,268v0,141,-107,266,-249,266v-65,0,-121,-26,-168,-77r0,60r-110,0r0,-667r120,0r0,213v40,-42,92,-63,156,-63xm318,-93v86,0,144,-73,144,-158v0,-84,-61,-156,-146,-156v-82,0,-149,71,-149,153v0,87,64,161,151,161","w":612},"c":{"d":"150,-250v0,86,64,157,150,157v45,0,82,-23,111,-70r135,0v-35,107,-126,176,-250,180v-143,4,-266,-127,-266,-269v0,-142,123,-265,265,-265v115,0,219,74,251,183r-135,0v-26,-45,-53,-72,-116,-73v-86,-2,-145,72,-145,157","w":563},"d":{"d":"281,-517v61,2,122,29,156,62r0,-212r120,0r0,667r-110,0r0,-61v-34,43,-100,76,-171,78v-135,4,-246,-132,-246,-266v0,-138,113,-272,251,-268xm298,-93v81,0,147,-76,147,-157v0,-82,-65,-157,-148,-157v-78,0,-147,77,-147,154v0,83,64,160,148,160","w":611},"e":{"d":"293,-520v157,0,293,150,252,323r-388,0v13,55,68,104,133,104v48,0,85,-22,112,-65r132,0v-25,93,-128,175,-240,175v-144,0,-264,-122,-264,-266v0,-143,120,-271,263,-271xm435,-293v-14,-64,-65,-117,-140,-117v-74,0,-130,53,-142,117r282,0","w":582},"f":{"d":"73,-500v9,-108,71,-197,197,-178r0,116v-58,3,-72,6,-77,62r70,0r0,110r-70,0r0,390r-120,0r0,-390r-42,0r0,-110r42,0","w":280},"g":{"d":"30,-254v0,-139,117,-263,256,-263v70,0,126,26,167,79r0,-62r110,0r0,409v5,172,-111,294,-274,294v-122,0,-217,-70,-251,-165r136,0v53,69,172,76,231,12v28,-29,43,-67,46,-113v-44,53,-99,80,-165,80v-140,0,-256,-131,-256,-271xm299,-93v81,0,144,-76,144,-157v0,-81,-66,-157,-147,-157v-82,0,-146,72,-146,154v0,84,65,160,149,160","w":617},"h":{"d":"378,-255v3,-87,-21,-152,-102,-152v-67,0,-101,51,-101,153r0,254r-120,0r0,-667r120,0r0,201v61,-58,156,-69,231,-21v66,43,92,91,92,205r0,282r-120,0r0,-255","w":549},"i":{"d":"175,-557r-120,0r0,-110r120,0r0,110xm175,0r-120,0r0,-500r120,0r0,500","w":229},"j":{"d":"175,-558r-120,0r0,-109r120,0r0,109xm175,-21v1,105,-65,189,-170,188r0,-117v42,-3,50,-26,50,-74r0,-476r120,0r0,479","w":229},"k":{"d":"497,0r-151,0r-171,-234r0,234r-120,0r0,-667r120,0r0,402r160,-235r139,0r-180,245","w":491},"l":{"d":"175,0r-120,0r0,-667r120,0r0,667","w":229},"m":{"d":"602,-517v136,-1,203,90,203,226r0,291r-120,0r0,-277v0,-87,-31,-130,-94,-130v-86,0,-102,73,-102,158r0,249r-120,0r0,-277v-1,-72,-26,-131,-99,-130v-82,2,-95,72,-95,158r0,249r-120,0r0,-500r110,0r0,43v30,-40,74,-60,133,-60v61,0,109,26,143,79v37,-53,90,-79,161,-79","w":857},"n":{"d":"499,0r-120,0r0,-247v0,-107,-34,-160,-101,-160v-43,0,-79,29,-91,62v-8,19,-12,55,-12,107r0,238r-120,0r0,-500r111,0r0,44v62,-67,154,-82,236,-34v71,41,97,102,97,220r0,270","w":551},"o":{"d":"298,-517v143,0,264,124,264,267v0,144,-122,267,-266,267v-142,0,-266,-125,-266,-267v0,-144,124,-267,268,-267xm297,-93v81,0,145,-74,145,-155v0,-81,-64,-159,-145,-159v-81,0,-147,77,-147,157v0,84,63,157,147,157","w":592},"p":{"d":"329,-517v143,0,250,123,250,265v0,140,-110,273,-251,269v-77,-2,-107,-23,-153,-64r0,214r-120,0r0,-667r110,0r0,59v40,-51,95,-76,164,-76xm313,-93v81,0,146,-76,146,-157v0,-81,-64,-157,-145,-157v-83,0,-147,75,-147,157v0,82,63,157,146,157","w":609},"q":{"d":"30,-254v0,-136,116,-263,253,-263v69,0,123,27,162,81r0,-64r110,0r0,667r-120,0r0,-214v-40,43,-91,64,-153,64v-141,0,-252,-131,-252,-271xm297,-93v81,0,144,-75,144,-156v0,-81,-64,-158,-145,-158v-84,0,-146,73,-146,157v0,84,62,157,147,157","w":609},"r":{"d":"165,-455v31,-40,54,-65,118,-61r0,116v-72,3,-108,42,-108,119r0,281r-120,0r0,-500r110,0r0,45","w":291},"s":{"d":"198,-407v-34,0,-61,39,-37,66v12,14,25,16,42,22v58,20,96,34,113,45v40,25,60,64,60,116v0,130,-156,223,-276,150v-52,-32,-79,-69,-86,-149r122,0v11,43,33,64,66,64v40,0,73,-50,42,-80v-42,-41,-126,-41,-167,-83v-29,-29,-45,-63,-45,-106v0,-88,81,-155,167,-155v87,0,163,69,164,153r-118,0v-5,-29,-20,-43,-47,-43","w":404},"t":{"d":"259,-390r-72,0r0,390r-120,0r0,-390r-59,0r0,-110r59,0r0,-167r120,0r0,167r72,0r0,110","w":277},"u":{"d":"387,-50v-36,42,-61,65,-130,67v-88,3,-171,-57,-193,-127v-9,-26,-13,-59,-13,-97r0,-293r120,0r0,256v0,101,34,151,102,151v69,0,104,-50,104,-151r0,-256r120,0r0,500r-110,0r0,-50","w":551},"v":{"d":"495,-500r-203,500r-94,0r-202,-500r130,0r122,332r115,-332r132,0","w":491},"w":{"d":"704,-500r-182,500r-74,0r-95,-324r-96,324r-73,0r-181,-500r129,0r92,305r83,-305r95,0r81,305r94,-305r127,0","w":708},"x":{"d":"492,0r-143,0r-107,-171r-106,171r-143,0r178,-258r-155,-242r134,0r92,151r91,-151r134,0r-155,242","w":484},"y":{"d":"504,-500r-288,667r-129,0r92,-214r-183,-453r137,0r113,321r121,-321r137,0"},"z":{"d":"398,0r-381,0r0,-108r221,-282r-195,0r0,-110r340,0r0,108r-221,282r236,0r0,110","w":411},"{":{"d":"289,23v2,78,19,77,97,80r0,87r-51,1v-105,-1,-145,-40,-146,-145r0,-160v-1,-54,-11,-79,-56,-90r0,-83v37,-9,56,-37,56,-83r0,-166v-4,-126,72,-144,197,-139r0,87v-77,3,-97,1,-97,78r0,147v-1,70,-15,91,-61,121v46,27,61,54,61,122r0,143"},"|":{"d":"300,250r-100,0r0,-1000r100,0r0,1000"},"}":{"d":"328,-371v1,52,12,81,56,90r0,83v-37,9,-56,37,-56,83r0,166v4,126,-73,144,-198,139r0,-87v50,1,86,0,94,-41v10,-52,3,-124,4,-184v2,-70,15,-91,61,-121v-46,-27,-61,-54,-61,-122r0,-143v-2,-78,-19,-77,-98,-80r0,-87r52,-1v105,1,145,40,146,145r0,160"},"~":{"d":"436,-677v47,-3,59,-27,81,-60r58,34v-35,67,-65,116,-153,122v-35,2,-162,-60,-195,-57v-44,4,-60,32,-79,66r-56,-37v21,-42,26,-52,52,-85v21,-26,48,-38,91,-41v41,-3,164,60,201,58","w":667},"\u00a0":{"w":333},"\u00a1":{"d":"190,-385r-120,0r0,-115r120,0r0,115xm190,167r-120,0r0,-497r120,0r0,497","w":260},"\u00a2":{"d":"154,-342v0,55,44,100,99,99v26,0,52,-12,77,-36r132,0v-32,77,-71,121,-152,145r0,99r-113,0r0,-99v-89,-14,-162,-110,-162,-211v0,-100,74,-193,162,-208r0,-92r113,0r0,92v81,21,132,79,152,154r-127,0v-14,-25,-48,-42,-84,-42v-53,-1,-97,46,-97,99"},"\u00a3":{"d":"289,-113v75,5,120,-62,91,-134r119,0v7,11,10,27,10,46v3,120,-98,201,-217,201r-256,0r0,-113r125,0v32,-65,18,-115,-34,-167r-127,0r0,-113r50,0v-58,-146,67,-288,202,-287v81,0,144,37,187,112v17,31,24,37,25,79r-121,0v-9,-41,-42,-74,-90,-74v-83,0,-128,109,-72,170r187,0r0,113r-98,0v26,51,38,107,19,167","w":517},"\u00a4":{"d":"630,-130r-55,55r-99,-99v-91,65,-189,65,-284,1r-99,98r-54,-55r98,-98v-64,-86,-64,-192,0,-280r-100,-99r55,-55r99,99v93,-63,191,-64,283,-1r99,-98r54,55r-97,98v63,95,64,186,1,280xm334,-215v82,0,152,-71,152,-153v0,-83,-70,-154,-153,-154v-82,0,-152,72,-152,154v0,83,70,153,153,153","w":667},"\u00a5":{"d":"501,-667r-100,211r62,0r0,95r-108,0r-42,89r130,0r0,95r-133,0r0,177r-120,0r0,-177r-133,0r0,-95r130,0r-43,-89r-107,0r0,-95r62,0r-101,-211r120,0r132,292r131,-292r120,0"},"\u00a6":{"d":"310,-322r-120,0r0,-345r120,0r0,345xm310,167r-120,0r0,-320r120,0r0,320"},"\u00a7":{"d":"250,-570v-31,0,-64,11,-63,43v0,22,20,43,59,64r148,76v51,27,77,68,77,125v0,51,-23,93,-70,127v30,31,45,67,45,108v0,104,-91,169,-194,169v-116,0,-205,-78,-207,-191r119,0v-1,54,35,83,89,83v43,0,94,-28,77,-76v-8,-27,-38,-38,-61,-50r-150,-79v-113,-52,-121,-208,-17,-274v-17,-29,-26,-57,-26,-84v-2,-97,85,-152,181,-151v113,0,176,64,187,169r-112,0v-8,-43,-33,-58,-82,-59xm172,-378v-15,10,-37,35,-38,57v0,21,18,40,53,57r139,71v32,-21,50,-53,28,-84v-13,-18,-22,-20,-44,-31"},"\u00a8":{"d":"398,-570r-116,0r0,-120r116,0r0,120xm218,-570r-116,0r0,-120r116,0r0,120"},"\u00a9":{"d":"380,-680v185,0,347,162,347,347v0,185,-162,346,-347,346v-185,0,-347,-161,-347,-346v0,-185,162,-347,347,-347xm380,-43v156,0,288,-134,288,-290v0,-156,-132,-291,-288,-291v-156,0,-288,136,-288,291v0,156,132,290,288,290xm177,-335v0,-112,100,-208,211,-206v93,2,170,53,195,127r-91,0v-24,-30,-64,-52,-106,-52v-68,0,-128,65,-128,132v0,68,61,134,130,134v34,0,67,-16,100,-49r92,0v-31,67,-100,122,-190,124v-113,2,-213,-97,-213,-210","w":760},"\u00aa":{"d":"17,-535v0,-77,59,-142,136,-140v33,0,61,12,86,37r0,-29r64,0r0,267r-64,0r0,-28v-30,25,-60,37,-90,37v-78,2,-132,-67,-132,-144xm302,-297r-279,0r0,-33r279,0r0,33xm162,-454v45,0,75,-36,75,-80v0,-43,-32,-79,-75,-79v-44,0,-76,37,-76,81v0,41,34,78,76,78","w":333},"\u00ab":{"d":"341,-94r-125,-118r0,-91r125,-117r0,111r-61,52r61,52r0,111xm162,-94r-125,-118r0,-91r125,-117r0,111r-61,52r61,52r0,111","w":385},"\u00ac":{"d":"467,0r-100,0r0,-177r-334,0r0,-90r434,0r0,267"},"\u00ad":{"d":"250,-207r-250,0r0,-100r250,0r0,100","w":250},"\u00ae":{"d":"257,-765v112,0,208,97,208,208v0,113,-95,209,-208,209v-113,0,-209,-96,-209,-209v0,-113,96,-208,209,-208xm257,-384v94,0,172,-80,172,-173v0,-92,-80,-172,-172,-172v-93,0,-173,78,-173,172v0,93,80,173,173,173xm256,-667v47,0,86,22,85,70v0,37,-19,60,-56,70r62,80r-59,0r-56,-78r0,78r-48,0r0,-220r72,0xm293,-594v0,-30,-29,-33,-62,-31r0,62v32,2,62,-1,62,-31","w":513},"\u00af":{"d":"407,-583r-307,0r0,-80r307,0r0,80"},"\u00b0":{"d":"250,-665v78,0,148,67,148,145v0,78,-70,145,-148,145v-78,0,-148,-67,-148,-145v0,-78,70,-145,148,-145xm250,-436v45,0,86,-39,86,-84v0,-45,-41,-85,-86,-85v-47,0,-86,38,-86,85v0,45,41,84,86,84"},"\u00b1":{"d":"467,-351r-167,0r0,163r-100,0r0,-163r-167,0r0,-92r167,0r0,-163r100,0r0,163r167,0r0,92xm467,-59r-434,0r0,-92r434,0r0,92"},"\u00b2":{"d":"170,-675v75,0,142,58,142,133v0,34,-13,65,-39,93v-44,48,-78,69,-124,109r163,0r0,74r-283,0r0,-72r153,-132v31,-26,47,-51,47,-75v1,-34,-27,-56,-61,-56v-38,1,-62,27,-60,76r-83,0v-11,-89,63,-150,145,-150","w":339},"\u00b3":{"d":"248,-497v38,15,63,54,64,104v2,76,-72,134,-148,134v-81,0,-147,-55,-150,-133r84,0v1,33,30,59,64,59v35,1,67,-26,67,-61v0,-41,-33,-61,-98,-61r0,-74v38,2,65,-5,67,-38v1,-20,-17,-34,-37,-34v-20,0,-31,12,-33,36r-83,0v1,-65,56,-109,115,-110v61,-1,121,48,121,110v0,30,-11,53,-33,68","w":339},"\u00b4":{"d":"398,-680r-177,133r-52,-66r172,-144"},"\u00b5":{"d":"250,-68v75,0,114,-64,114,-155r0,-256r99,0r0,479r-99,0r0,-71v-25,48,-51,82,-117,83v-46,0,-83,-23,-110,-68r0,226r-100,0r0,-649r100,0r0,262v0,99,38,149,113,149"},"\u00b6":{"d":"24,-489v3,-125,89,-178,225,-178r301,0r0,78r-66,0r0,684r-86,0r0,-684r-94,0r0,684r-86,0r0,-413v-111,9,-196,-64,-194,-171","w":621},"\u00b7":{"d":"143,-268r-143,0r0,-144r143,0r0,144","w":143},"\u00b8":{"d":"253,52v58,-25,112,31,112,85v0,48,-42,90,-90,90v-47,0,-87,-34,-91,-77r54,0v7,18,19,27,36,27v19,1,37,-21,37,-40v0,-19,-17,-40,-36,-39v-13,0,-24,7,-35,22r-49,-23r43,-97r42,0"},"\u00b9":{"d":"226,-267r-83,0r0,-326r-54,0r0,-74r137,0r0,400","w":339},"\u00ba":{"d":"168,-675v77,0,142,64,142,141v0,77,-67,143,-143,143v-76,0,-144,-67,-144,-143v0,-77,69,-141,145,-141xm304,-297r-274,0r0,-33r274,0r0,33xm167,-454v42,0,74,-38,74,-79v0,-41,-33,-80,-74,-80v-40,0,-75,39,-75,79v0,42,33,80,75,80","w":333},"\u00bb":{"d":"348,-212r-126,118r0,-111r61,-52r-61,-52r0,-111r126,117r0,91xm169,-212r-126,118r0,-111r61,-52r-61,-52r0,-111r126,117r0,91","w":385},"\u00bc":{"d":"811,-59r-45,0r0,59r-83,0r0,-59r-185,0r0,-62r199,-279r69,0r0,267r45,0r0,74xm591,-667r-276,667r-76,0r277,-667r75,0xm226,-267r-83,0r0,-326r-54,0r0,-74r137,0r0,400xm686,-129r0,-143r-98,143r98,0","w":829},"\u00bd":{"d":"661,-408v75,0,142,58,142,133v0,34,-13,65,-39,93v-44,49,-78,68,-124,108r163,0r0,74r-283,0r0,-72r153,-132v31,-27,47,-52,47,-74v1,-34,-27,-56,-61,-56v-39,1,-62,27,-60,76r-83,0v-11,-89,63,-150,145,-150xm591,-667r-276,667r-76,0r277,-667r75,0xm226,-267r-83,0r0,-326r-54,0r0,-74r137,0r0,400","w":829},"\u00be":{"d":"810,-59r-45,0r0,59r-83,0r0,-59r-185,0r0,-62r199,-279r69,0r0,267r45,0r0,74xm590,-667r-276,667r-75,0r276,-667r75,0xm248,-497v38,15,63,54,64,104v2,76,-72,134,-148,134v-81,0,-147,-55,-150,-133r84,0v1,33,30,59,64,59v35,1,67,-26,67,-61v0,-41,-33,-61,-98,-61r0,-74v38,2,65,-5,67,-38v1,-20,-17,-34,-37,-34v-20,0,-31,12,-33,36r-83,0v1,-65,56,-109,115,-110v61,-1,121,48,121,110v0,30,-11,53,-33,68xm685,-129r0,-143r-98,143r98,0","w":829},"\u00bf":{"d":"300,-380r-120,0r0,-120r120,0r0,120xm236,60v61,-1,75,-33,85,-89r120,0v-6,69,-27,119,-64,152v-43,38,-91,57,-144,57v-111,0,-204,-99,-201,-209v3,-81,42,-112,91,-160v38,-36,56,-48,58,-112v0,-19,0,-29,-1,-31r120,0v7,90,-20,156,-80,206v-29,24,-68,57,-68,100v0,51,33,87,84,86","w":454},"\u00c0":{"d":"457,-793r-44,80r-205,-109r46,-91xm653,0r-137,0r-71,-172r-236,0r-74,172r-136,0r277,-667r97,0xm396,-287r-71,-205r-72,205r143,0","w":651},"\u00c1":{"d":"444,-822r-206,109r-44,-80r203,-120xm653,0r-137,0r-71,-172r-236,0r-74,172r-136,0r277,-667r97,0xm396,-287r-71,-205r-72,205r143,0","w":651},"\u00c2":{"d":"506,-733r-131,0r-48,-58r-51,58r-130,0r122,-125r111,0xm653,0r-137,0r-71,-172r-236,0r-74,172r-136,0r277,-667r97,0xm396,-287r-71,-205r-72,205r143,0","w":651},"\u00c3":{"d":"255,-857v25,0,102,22,127,22v27,0,51,-8,73,-24r53,70v-36,31,-73,46,-110,46v-25,0,-100,-20,-124,-20v-27,0,-53,7,-78,22r-53,-73v37,-29,74,-43,112,-43xm653,0r-137,0r-71,-172r-236,0r-74,172r-136,0r277,-667r97,0xm396,-287r-71,-205r-72,205r143,0","w":651},"\u00c4":{"d":"479,-737r-120,0r0,-120r120,0r0,120xm292,-737r-120,0r0,-120r120,0r0,120xm653,0r-137,0r-71,-172r-236,0r-74,172r-136,0r277,-667r97,0xm396,-287r-71,-205r-72,205r143,0","w":651},"\u00c5":{"d":"326,-918v54,0,103,48,103,102v0,56,-47,103,-103,103v-56,0,-104,-47,-104,-103v0,-54,50,-102,104,-102xm653,0r-137,0r-71,-172r-236,0r-74,172r-136,0r277,-667r97,0xm326,-775v21,0,39,-19,39,-41v0,-21,-18,-41,-39,-41v-21,0,-39,19,-39,41v0,22,17,41,39,41xm396,-287r-71,-205r-72,205r143,0","w":651},"\u00c6":{"d":"724,0r-322,0r0,-172r-176,0r-104,172r-145,0r440,-667r307,0r0,116r-198,0r0,162r188,0r0,116r-188,0r0,158r198,0r0,115xm402,-287r0,-176r-104,176r104,0","w":764},"\u00c7":{"d":"31,-336v0,-183,163,-344,345,-344v137,0,267,86,315,204r-140,0v-51,-59,-110,-89,-179,-89v-117,0,-217,114,-217,231v0,119,103,236,222,232v82,-2,121,-35,167,-83r143,0v-44,109,-161,193,-301,198r-18,38v62,-26,117,32,117,89v0,50,-46,97,-96,97v-53,0,-92,-34,-96,-84r54,0v7,21,21,31,40,31v22,1,39,-22,39,-44v0,-21,-15,-40,-36,-39v-16,0,-29,8,-38,24r-52,-26r39,-88v-165,-16,-308,-168,-308,-347","w":707},"\u00c8":{"d":"365,-793r-43,80r-206,-109r46,-91xm420,0r-359,0r0,-667r359,0r0,116r-235,0r0,162r225,0r0,116r-225,0r0,158r235,0r0,115","w":460},"\u00c9":{"d":"365,-822r-205,109r-44,-80r203,-120xm420,0r-359,0r0,-667r359,0r0,116r-235,0r0,162r225,0r0,116r-225,0r0,158r235,0r0,115","w":460},"\u00ca":{"d":"421,-733r-131,0r-48,-58r-51,58r-130,0r122,-125r111,0xm420,0r-359,0r0,-667r359,0r0,116r-235,0r0,162r225,0r0,116r-225,0r0,158r235,0r0,115","w":460},"\u00cb":{"d":"394,-737r-120,0r0,-120r120,0r0,120xm207,-737r-120,0r0,-120r120,0r0,120xm420,0r-359,0r0,-667r359,0r0,116r-235,0r0,162r225,0r0,116r-225,0r0,158r235,0r0,115","w":460},"\u00cc":{"d":"248,-793r-44,80r-206,-109r47,-91xm185,0r-124,0r0,-667r124,0r0,667","w":246},"\u00cd":{"d":"248,-822r-206,109r-44,-80r203,-120xm185,0r-124,0r0,-667r124,0r0,667","w":246},"\u00ce":{"d":"254,-733r-95,0r-35,-58r-37,58r-95,0r89,-125r81,0xm185,0r-124,0r0,-667r124,0r0,667","w":246},"\u00cf":{"d":"247,-743r-102,0r0,-108r102,0r0,108xm100,-743r-102,0r0,-108r102,0r0,108xm185,0r-124,0r0,-667r124,0r0,667","w":246},"\u00d0":{"d":"558,-494v55,107,50,233,-6,335v-61,110,-161,160,-337,159r-154,0r0,-284r-63,0r0,-103r63,0r0,-280r151,0v186,1,285,52,346,173xm446,-226v37,-67,36,-152,-2,-217v-49,-84,-111,-109,-260,-109r0,165r160,0r0,103r-160,0r0,169v79,2,150,-8,189,-33v31,-20,55,-45,73,-78","w":627},"\u00d1":{"d":"261,-857v25,0,103,22,128,22v25,0,50,-8,73,-24r52,70v-35,31,-71,46,-109,46v-26,0,-99,-20,-124,-20v-28,0,-54,7,-79,22r-52,-73v34,-29,71,-43,111,-43xm603,0r-138,0r-280,-484r0,484r-124,0r0,-667r141,0r277,485r0,-485r124,0r0,667","w":664},"\u00d2":{"d":"504,-793r-43,80r-206,-109r46,-91xm380,-680v187,0,348,160,348,347v0,187,-161,346,-348,346v-187,0,-349,-159,-349,-346v0,-187,162,-347,349,-347xm380,-102v123,0,225,-108,225,-231v0,-123,-102,-232,-225,-232v-123,0,-225,110,-225,232v0,123,102,231,225,231","w":759},"\u00d3":{"d":"504,-822r-205,109r-44,-80r203,-120xm380,-680v187,0,348,160,348,347v0,187,-161,346,-348,346v-187,0,-349,-159,-349,-346v0,-187,162,-347,349,-347xm380,-102v123,0,225,-108,225,-231v0,-123,-102,-232,-225,-232v-123,0,-225,110,-225,232v0,123,102,231,225,231","w":759},"\u00d4":{"d":"560,-733r-131,0r-48,-58r-51,58r-130,0r122,-125r111,0xm380,-680v187,0,348,160,348,347v0,187,-161,346,-348,346v-187,0,-349,-159,-349,-346v0,-187,162,-347,349,-347xm380,-102v123,0,225,-108,225,-231v0,-123,-102,-232,-225,-232v-123,0,-225,110,-225,232v0,123,102,231,225,231","w":759},"\u00d5":{"d":"309,-857v25,0,102,22,127,22v27,0,51,-8,73,-24r53,70v-35,31,-71,46,-109,46v-25,0,-100,-20,-125,-20v-27,0,-53,7,-78,22r-53,-73v37,-29,74,-43,112,-43xm380,-680v187,0,348,160,348,347v0,187,-161,346,-348,346v-187,0,-349,-159,-349,-346v0,-187,162,-347,349,-347xm380,-102v123,0,225,-108,225,-231v0,-123,-102,-232,-225,-232v-123,0,-225,110,-225,232v0,123,102,231,225,231","w":759},"\u00d6":{"d":"533,-737r-120,0r0,-120r120,0r0,120xm346,-737r-120,0r0,-120r120,0r0,120xm380,-680v187,0,348,160,348,347v0,187,-161,346,-348,346v-187,0,-349,-159,-349,-346v0,-187,162,-347,349,-347xm380,-102v123,0,225,-108,225,-231v0,-123,-102,-232,-225,-232v-123,0,-225,110,-225,232v0,123,102,231,225,231","w":759},"\u00d7":{"d":"444,-202r-63,63r-132,-132r-131,131r-62,-62r132,-131r-132,-132r63,-62r131,131r132,-131r62,62r-130,133"},"\u00d8":{"d":"380,-680v70,2,88,8,142,30r57,-84r99,68r-57,83v71,70,107,153,107,250v0,187,-162,350,-349,346v-69,-2,-90,-8,-143,-31r-55,82r-99,-68r55,-81v-71,-69,-106,-151,-106,-248v0,-187,162,-351,349,-347xm303,-116v157,58,302,-69,302,-217v0,-55,-18,-104,-53,-149xm455,-551v-157,-59,-302,71,-300,218v0,56,17,105,51,147","w":759},"\u00d9":{"d":"418,-793r-44,80r-206,-109r47,-91xm531,-243v5,159,-96,256,-237,256v-96,0,-184,-56,-216,-126v-15,-32,-23,-75,-23,-130r0,-424r123,0r0,424v0,94,38,141,115,141v77,0,115,-47,115,-141r0,-424r123,0r0,424","w":586},"\u00da":{"d":"418,-822r-206,109r-44,-80r203,-120xm531,-243v5,159,-96,256,-237,256v-96,0,-184,-56,-216,-126v-15,-32,-23,-75,-23,-130r0,-424r123,0r0,424v0,94,38,141,115,141v77,0,115,-47,115,-141r0,-424r123,0r0,424","w":586},"\u00db":{"d":"473,-733r-131,0r-48,-58r-50,58r-131,0r122,-125r111,0xm531,-243v5,159,-96,256,-237,256v-96,0,-184,-56,-216,-126v-15,-32,-23,-75,-23,-130r0,-424r123,0r0,424v0,94,38,141,115,141v77,0,115,-47,115,-141r0,-424r123,0r0,424","w":586},"\u00dc":{"d":"446,-737r-120,0r0,-120r120,0r0,120xm260,-737r-120,0r0,-120r120,0r0,120xm531,-243v5,159,-96,256,-237,256v-96,0,-184,-56,-216,-126v-15,-32,-23,-75,-23,-130r0,-424r123,0r0,424v0,94,38,141,115,141v77,0,115,-47,115,-141r0,-424r123,0r0,424","w":586},"\u00dd":{"d":"439,-822r-206,109r-44,-80r203,-120xm555,-667r-220,421r0,246r-123,0r0,-246r-219,-421r135,0r146,307r145,-307r136,0","w":549},"\u00de":{"d":"292,-572v155,7,239,165,170,305v-40,80,-118,115,-245,108r-33,0r0,159r-123,0r0,-667r123,0r0,94xm364,-367v-3,-65,-50,-89,-135,-86r-45,0r0,174v74,0,137,3,164,-39v10,-15,16,-31,16,-49","w":507},"\u00df":{"d":"388,-369v85,21,144,76,145,176v2,122,-91,210,-213,210v-72,0,-125,-28,-159,-83r0,66r-110,0r0,-440v-1,-141,70,-235,203,-240v105,-4,194,83,194,189v0,59,-20,99,-60,122xm332,-93v66,0,101,-81,70,-139v-16,-28,-32,-38,-70,-46v-39,-8,-48,-7,-94,-7r0,-106v57,6,89,-42,90,-92v0,-50,-27,-88,-77,-87v-53,0,-80,39,-80,116r0,283r78,0v7,39,38,78,83,78","w":563},"\u00e0":{"d":"428,-613r-52,66r-178,-133r57,-77xm280,-517v69,1,137,37,168,80r0,-63r110,0r0,500r-110,0r0,-61v-32,40,-108,77,-175,78v-144,3,-243,-127,-243,-270v0,-142,107,-267,250,-264xm298,-93v87,0,147,-72,147,-159v0,-86,-61,-155,-147,-155v-86,0,-148,75,-148,160v0,82,66,154,148,154","w":613},"\u00e1":{"d":"408,-680r-178,133r-52,-66r173,-144xm280,-517v69,1,137,37,168,80r0,-63r110,0r0,500r-110,0r0,-61v-32,40,-108,77,-175,78v-144,3,-243,-127,-243,-270v0,-142,107,-267,250,-264xm298,-93v87,0,147,-72,147,-159v0,-86,-61,-155,-147,-155v-86,0,-148,75,-148,160v0,82,66,154,148,154","w":613},"\u00e2":{"d":"466,-563r-120,0r-49,-65r-50,65r-121,0r117,-132r108,0xm280,-517v69,1,137,37,168,80r0,-63r110,0r0,500r-110,0r0,-61v-32,40,-108,77,-175,78v-144,3,-243,-127,-243,-270v0,-142,107,-267,250,-264xm298,-93v87,0,147,-72,147,-159v0,-86,-61,-155,-147,-155v-86,0,-148,75,-148,160v0,82,66,154,148,154","w":613},"\u00e3":{"d":"238,-685v25,0,97,21,122,21v26,0,49,-7,70,-22r50,67v-33,30,-68,45,-104,45v-24,0,-94,-20,-118,-20v-27,0,-52,7,-76,21r-50,-70v35,-28,70,-42,106,-42xm280,-517v69,1,137,37,168,80r0,-63r110,0r0,500r-110,0r0,-61v-32,40,-108,77,-175,78v-144,3,-243,-127,-243,-270v0,-142,107,-267,250,-264xm298,-93v87,0,147,-72,147,-159v0,-86,-61,-155,-147,-155v-86,0,-148,75,-148,160v0,82,66,154,148,154","w":613},"\u00e4":{"d":"442,-570r-116,0r0,-120r116,0r0,120xm262,-570r-116,0r0,-120r116,0r0,120xm280,-517v69,1,137,37,168,80r0,-63r110,0r0,500r-110,0r0,-61v-32,40,-108,77,-175,78v-144,3,-243,-127,-243,-270v0,-142,107,-267,250,-264xm298,-93v87,0,147,-72,147,-159v0,-86,-61,-155,-147,-155v-86,0,-148,75,-148,160v0,82,66,154,148,154","w":613},"\u00e5":{"d":"307,-752v55,0,100,44,100,99v0,53,-47,100,-100,100v-53,0,-100,-47,-100,-100v0,-53,47,-99,100,-99xm280,-517v69,1,137,37,168,80r0,-63r110,0r0,500r-110,0r0,-61v-32,40,-108,77,-175,78v-144,3,-243,-127,-243,-270v0,-142,107,-267,250,-264xm307,-611v22,0,40,-20,40,-42v0,-22,-18,-42,-40,-42v-22,0,-40,20,-40,42v0,22,18,42,40,42xm298,-93v87,0,147,-72,147,-159v0,-86,-61,-155,-147,-155v-86,0,-148,75,-148,160v0,82,66,154,148,154","w":613},"\u00e6":{"d":"701,-517v152,-1,288,152,244,320r-387,0v16,56,65,104,133,104v46,0,84,-22,114,-65r131,0v-22,87,-136,176,-241,175v-63,0,-111,-22,-144,-67r0,50r-110,0r0,-50v-37,45,-87,67,-151,67v-140,0,-260,-128,-260,-267v0,-141,121,-267,262,-267v57,0,107,21,149,63r0,-46r110,0r0,46v39,-42,89,-63,150,-63xm829,-293v-23,-76,-68,-114,-135,-114v-71,0,-117,38,-138,114r273,0xm294,-93v81,0,144,-77,144,-158v0,-81,-63,-156,-144,-156v-81,0,-144,75,-144,156v0,81,63,158,144,158","w":983},"\u00e7":{"d":"150,-250v0,86,64,157,150,157v45,0,82,-23,111,-70r135,0v-36,103,-116,174,-242,180r-16,35v58,-25,112,32,112,85v0,48,-41,90,-90,90v-47,0,-87,-34,-91,-77r54,0v7,18,18,27,35,27v21,1,38,-19,38,-40v0,-19,-17,-40,-36,-39v-12,0,-24,7,-35,22r-49,-23r37,-83v-128,-16,-233,-125,-233,-266v0,-142,123,-265,265,-265v118,0,219,76,251,183r-135,0v-27,-45,-52,-72,-116,-73v-86,-2,-145,72,-145,157","w":563},"\u00e8":{"d":"419,-613r-52,66r-177,-133r56,-77xm293,-520v157,0,293,150,252,323r-388,0v13,55,68,104,133,104v48,0,85,-22,112,-65r132,0v-25,93,-128,175,-240,175v-144,0,-264,-122,-264,-266v0,-143,120,-271,263,-271xm435,-293v-14,-64,-65,-117,-140,-117v-74,0,-130,53,-142,117r282,0","w":582},"\u00e9":{"d":"399,-680r-177,133r-52,-66r172,-144xm293,-520v157,0,293,150,252,323r-388,0v13,55,68,104,133,104v48,0,85,-22,112,-65r132,0v-25,93,-128,175,-240,175v-144,0,-264,-122,-264,-266v0,-143,120,-271,263,-271xm435,-293v-14,-64,-65,-117,-140,-117v-74,0,-130,53,-142,117r282,0","w":582},"\u00ea":{"d":"461,-563r-121,0r-48,-65r-50,65r-121,0r117,-132r108,0xm293,-520v157,0,293,150,252,323r-388,0v13,55,68,104,133,104v48,0,85,-22,112,-65r132,0v-25,93,-128,175,-240,175v-144,0,-264,-122,-264,-266v0,-143,120,-271,263,-271xm435,-293v-14,-64,-65,-117,-140,-117v-74,0,-130,53,-142,117r282,0","w":582},"\u00eb":{"d":"443,-570r-116,0r0,-120r116,0r0,120xm263,-570r-116,0r0,-120r116,0r0,120xm293,-520v157,0,293,150,252,323r-388,0v13,55,68,104,133,104v48,0,85,-22,112,-65r132,0v-25,93,-128,175,-240,175v-144,0,-264,-122,-264,-266v0,-143,120,-271,263,-271xm435,-293v-14,-64,-65,-117,-140,-117v-74,0,-130,53,-142,117r282,0","w":582},"\u00ec":{"d":"236,-613r-52,66r-177,-133r56,-77xm175,0r-120,0r0,-500r120,0r0,500","w":229},"\u00ed":{"d":"223,-680r-178,133r-52,-66r173,-144xm175,0r-120,0r0,-500r120,0r0,500","w":229},"\u00ee":{"d":"232,-563r-77,0r-40,-71r-41,71r-77,0r81,-132r75,0xm175,0r-120,0r0,-500r120,0r0,500","w":229},"\u00ef":{"d":"235,-576r-99,0r0,-108r99,0r0,108xm94,-576r-99,0r0,-108r99,0r0,108xm175,0r-120,0r0,-500r120,0r0,500","w":229},"\u00f0":{"d":"267,-618v-5,-7,-38,-46,-47,-51r70,-42v13,11,31,29,55,53r68,-32r41,54r-68,34r51,66v18,25,75,109,88,141v15,38,37,103,37,156v0,139,-129,256,-268,256v-144,0,-264,-121,-264,-265v0,-160,147,-296,317,-243v-9,-18,-29,-51,-42,-71r-62,30r-39,-54xm298,-93v80,0,144,-70,144,-150v0,-81,-67,-154,-148,-154v-76,0,-144,72,-144,148v0,84,64,156,148,156","w":592},"\u00f1":{"d":"207,-685v25,0,97,21,122,21v26,0,49,-7,70,-22r50,67v-33,30,-68,45,-104,45v-24,0,-94,-20,-118,-20v-27,0,-52,7,-76,21r-50,-70v35,-28,71,-42,106,-42xm499,0r-120,0r0,-247v0,-107,-34,-160,-101,-160v-43,0,-79,29,-91,62v-8,19,-12,55,-12,107r0,238r-120,0r0,-500r111,0r0,44v62,-67,154,-82,236,-34v71,41,97,102,97,220r0,270","w":551},"\u00f2":{"d":"417,-613r-52,66r-177,-133r57,-77xm298,-517v143,0,264,124,264,267v0,144,-122,267,-266,267v-142,0,-266,-125,-266,-267v0,-144,124,-267,268,-267xm297,-93v81,0,145,-74,145,-155v0,-81,-64,-159,-145,-159v-81,0,-147,77,-147,157v0,84,63,157,147,157","w":592},"\u00f3":{"d":"404,-680r-177,133r-52,-66r172,-144xm298,-517v143,0,264,124,264,267v0,144,-122,267,-266,267v-142,0,-266,-125,-266,-267v0,-144,124,-267,268,-267xm297,-93v81,0,145,-74,145,-155v0,-81,-64,-159,-145,-159v-81,0,-147,77,-147,157v0,84,63,157,147,157","w":592},"\u00f4":{"d":"466,-563r-121,0r-48,-65r-50,65r-121,0r117,-132r108,0xm298,-517v143,0,264,124,264,267v0,144,-122,267,-266,267v-142,0,-266,-125,-266,-267v0,-144,124,-267,268,-267xm297,-93v81,0,145,-74,145,-155v0,-81,-64,-159,-145,-159v-81,0,-147,77,-147,157v0,84,63,157,147,157","w":592},"\u00f5":{"d":"228,-685v25,0,97,21,122,21v27,0,51,-7,70,-22r50,67v-35,30,-70,45,-104,45v-24,0,-95,-20,-119,-20v-27,0,-52,7,-75,21r-50,-70v35,-28,70,-42,106,-42xm298,-517v143,0,264,124,264,267v0,144,-122,267,-266,267v-142,0,-266,-125,-266,-267v0,-144,124,-267,268,-267xm297,-93v81,0,145,-74,145,-155v0,-81,-64,-159,-145,-159v-81,0,-147,77,-147,157v0,84,63,157,147,157","w":592},"\u00f6":{"d":"444,-570r-116,0r0,-120r116,0r0,120xm264,-570r-116,0r0,-120r116,0r0,120xm298,-517v143,0,264,124,264,267v0,144,-122,267,-266,267v-142,0,-266,-125,-266,-267v0,-144,124,-267,268,-267xm297,-93v81,0,145,-74,145,-155v0,-81,-64,-159,-145,-159v-81,0,-147,77,-147,157v0,84,63,157,147,157","w":592},"\u00f7":{"d":"250,-574v33,0,61,29,61,62v0,32,-29,61,-61,61v-32,0,-61,-29,-61,-61v0,-33,28,-62,61,-62xm467,-290r-434,0r0,-93r434,0r0,93xm250,-221v34,0,61,27,61,61v0,32,-29,61,-61,61v-34,0,-61,-27,-61,-61v0,-34,27,-61,61,-61"},"\u00f8":{"d":"30,-251v0,-176,184,-322,368,-246r35,-50r89,61r-34,50v49,53,74,115,74,186v0,179,-185,325,-369,245r-34,50r-89,-61r34,-49v-49,-53,-74,-115,-74,-186xm258,-99v134,40,231,-117,160,-235xm333,-401v-130,-37,-229,116,-161,236","w":592},"\u00f9":{"d":"404,-613r-52,66r-178,-133r57,-77xm387,-50v-36,42,-61,65,-130,67v-88,3,-171,-57,-193,-127v-9,-26,-13,-59,-13,-97r0,-293r120,0r0,256v0,101,34,151,102,151v69,0,104,-50,104,-151r0,-256r120,0r0,500r-110,0r0,-50","w":551},"\u00fa":{"d":"384,-680r-178,133r-52,-66r173,-144xm387,-50v-36,42,-61,65,-130,67v-88,3,-171,-57,-193,-127v-9,-26,-13,-59,-13,-97r0,-293r120,0r0,256v0,101,34,151,102,151v69,0,104,-50,104,-151r0,-256r120,0r0,500r-110,0r0,-50","w":551},"\u00fb":{"d":"446,-563r-121,0r-48,-65r-51,65r-120,0r117,-132r108,0xm387,-50v-36,42,-61,65,-130,67v-88,3,-171,-57,-193,-127v-9,-26,-13,-59,-13,-97r0,-293r120,0r0,256v0,101,34,151,102,151v69,0,104,-50,104,-151r0,-256r120,0r0,500r-110,0r0,-50","w":551},"\u00fc":{"d":"422,-570r-116,0r0,-120r116,0r0,120xm242,-570r-116,0r0,-120r116,0r0,120xm387,-50v-36,42,-61,65,-130,67v-88,3,-171,-57,-193,-127v-9,-26,-13,-59,-13,-97r0,-293r120,0r0,256v0,101,34,151,102,151v69,0,104,-50,104,-151r0,-256r120,0r0,500r-110,0r0,-50","w":551},"\u00fd":{"d":"398,-680r-178,133r-52,-66r173,-144xm504,-500r-288,667r-129,0r92,-213r-183,-454r137,0r113,321r121,-321r137,0"},"\u00fe":{"d":"328,-517v142,-4,251,124,251,261v0,144,-106,277,-251,273v-78,-1,-111,-25,-153,-71r0,221r-120,0r0,-834r110,0r0,232v40,-51,81,-80,163,-82xm314,-100v79,0,145,-71,145,-150v0,-80,-64,-150,-144,-150v-81,0,-147,70,-147,150v0,80,65,150,146,150","w":609},"\u00ff":{"d":"398,-570r-117,0r0,-120r117,0r0,120xm218,-570r-117,0r0,-120r117,0r0,120xm504,-500r-288,667r-129,0r92,-214r-183,-453r137,0r113,321r121,-321r137,0"},"\u0152":{"d":"366,-680v87,2,176,33,217,86r0,-73r322,0r0,116r-198,0r0,162r188,0r0,116r-188,0r0,158r198,0r0,115r-322,0r0,-71v-41,49,-132,82,-217,84v-184,4,-335,-162,-335,-345v0,-188,147,-353,335,-348xm373,-102v119,0,215,-108,215,-226v0,-122,-96,-237,-218,-237v-124,0,-215,115,-215,238v0,118,100,225,218,225","w":945},"\u0153":{"d":"686,-517v141,-3,267,115,263,257v0,19,-2,40,-5,63r-387,0v18,55,64,103,132,104v48,0,96,-32,115,-65r128,0v-27,92,-129,175,-242,175v-89,-1,-159,-46,-197,-105v-41,67,-108,103,-201,105v-143,4,-262,-125,-262,-268v0,-142,122,-269,264,-266v88,2,155,41,199,103v51,-60,95,-101,193,-103xm825,-293v-13,-63,-63,-114,-136,-114v-75,0,-117,52,-135,114r271,0xm296,-93v81,0,145,-76,145,-157v0,-80,-65,-157,-146,-157v-81,0,-145,75,-145,155v0,82,63,159,146,159","w":979},"\u0178":{"d":"428,-737r-120,0r0,-120r120,0r0,120xm241,-737r-120,0r0,-120r120,0r0,120xm556,-667r-220,421r0,246r-124,0r0,-246r-219,-421r136,0r145,307r146,-307r136,0","w":549},"\u02c6":{"d":"420,-563r-121,0r-48,-65r-50,65r-121,0r117,-132r108,0"},"\u02dc":{"d":"179,-687v27,0,104,25,130,25v24,0,46,-7,67,-20r48,69v-34,27,-68,41,-101,41v-26,0,-102,-24,-128,-24v-25,0,-48,6,-71,18r-48,-71v35,-25,69,-38,103,-38"},"\u2013":{"d":"467,-290r-434,0r0,-93r434,0r0,93"},"\u2014":{"d":"751,-203r-751,0r0,-107r751,0r0,107","w":751},"\u2018":{"d":"176,-606v-37,6,-58,23,-52,66r53,0r0,120r-120,0v3,-81,-14,-174,32,-215v22,-20,50,-32,87,-32r0,61","w":233},"\u2019":{"d":"58,-481v37,-6,57,-24,51,-66r-52,0r0,-120r120,0v-3,81,14,173,-32,215v-22,21,-50,32,-87,32r0,-61","w":233},"\u201a":{"d":"58,66v37,-6,57,-24,51,-66r-52,0r0,-120r120,0v-3,81,14,172,-32,214v-22,21,-50,33,-87,33r0,-61","w":233},"\u201c":{"d":"362,-606v-37,6,-57,24,-51,66r52,0r0,120r-120,0v3,-81,-14,-172,32,-214v22,-21,50,-33,87,-33r0,61xm176,-606v-37,6,-58,23,-52,66r53,0r0,120r-120,0v3,-81,-14,-174,32,-215v22,-20,50,-32,87,-32r0,61","w":420},"\u201d":{"d":"244,-481v38,-6,58,-22,52,-66r-53,0r0,-120r120,0v-3,81,14,174,-32,215v-22,20,-50,32,-87,32r0,-61xm58,-481v37,-6,57,-24,51,-66r-52,0r0,-120r120,0v-3,81,14,173,-32,215v-22,21,-50,32,-87,32r0,-61","w":420},"\u201e":{"d":"244,66v37,-6,58,-23,52,-66r-53,0r0,-120r120,0v-3,81,14,174,-32,215v-22,20,-50,32,-87,32r0,-61xm58,66v37,-6,57,-24,51,-66r-52,0r0,-120r120,0v-3,81,14,172,-32,214v-22,21,-50,33,-87,33r0,-61","w":420},"\u2022":{"d":"334,-480v74,0,137,66,137,140v0,74,-63,140,-137,140v-74,0,-138,-66,-138,-140v0,-74,64,-140,138,-140","w":667},"\u2026":{"d":"643,0r-120,0r0,-120r120,0r0,120xm410,0r-120,0r0,-120r120,0r0,120xm177,0r-120,0r0,-120r120,0r0,120","w":700},"\u2039":{"d":"162,-94r-125,-118r0,-91r125,-117r0,111r-61,52r61,52r0,111","w":206},"\u203a":{"d":"169,-212r-126,118r0,-111r61,-52r-61,-52r0,-111r126,117r0,91","w":206},"\u20ac":{"d":"160,-451v41,-123,169,-229,325,-229v136,0,268,88,315,204r-140,0v-73,-88,-185,-119,-286,-58v-33,20,-59,49,-78,83r266,0r-36,85r-260,0v-3,29,-3,42,1,66r236,0r-36,84r-171,0v35,61,102,114,190,114v82,0,121,-35,167,-83r143,0v-43,109,-164,197,-308,198v-156,0,-284,-107,-326,-229r-155,0r36,-84r99,0v-2,-26,-2,-46,-1,-66r-143,0r45,-85r117,0","w":816},"\u2122":{"d":"722,-287r-83,0r0,-265r-101,265r-70,0r-101,-265r0,265r-83,0r0,-380r111,0r108,277r108,-277r111,0r0,380xm253,-595r-77,0r0,308r-83,0r0,-308r-76,0r0,-72r236,0r0,72","w":779}}});
